63 50
</s> 0.006804 0.007018 0.003689 0.009845 -0.003058 0.003684 0.007311 0.004389 -0.002110 -0.001065 0.002029 0.002934 0.000537 -0.001312 0.004289 0.004994 0.003867 -0.002310 0.007137 -0.000835 0.007346 0.000152 0.001595 -0.009399 0.005875 0.006701 -0.006434 -0.004728 0.005936 0.008215 -0.009174 -0.009011 -0.005243 -0.007616 0.000923 0.004888 0.001521 -0.008392 0.002914 -0.001610 0.008480 0.008964 0.009250 -0.008929 0.005029 -0.000993 -0.004778 -0.006194 -0.000524 -0.009761 
CGT -0.002112 -0.004667 -0.002336 0.001539 -0.006308 0.004551 0.004420 -0.005993 0.004121 -0.000453 0.005414 -0.003170 0.006960 0.003081 0.002704 -0.002024 -0.001118 -0.002835 0.008190 -0.003948 -0.007164 -0.009198 -0.001832 -0.001351 0.003810 -0.000746 -0.008797 -0.005310 0.004068 -0.007583 0.005969 -0.005119 0.001290 -0.002788 0.004507 0.003397 0.000270 0.000845 -0.002452 0.006300 -0.000644 -0.009391 0.002226 -0.001128 -0.001974 0.000791 -0.006148 0.001138 0.008281 0.002044 
CGC 0.005662 0.000795 0.004995 0.007552 0.002182 -0.007219 -0.009017 -0.001976 0.007378 0.009903 0.007744 -0.008997 -0.004996 -0.003520 0.000323 -0.002664 -0.005273 0.008617 -0.002267 0.001731 0.007093 0.008506 -0.009717 -0.003579 -0.004478 0.008877 -0.004648 -0.005928 0.003554 0.003772 0.003440 0.006978 -0.006016 0.008476 -0.007243 0.004691 -0.004781 0.008018 0.004959 -0.001697 0.006707 -0.007052 0.004366 -0.002704 -0.007494 -0.001654 -0.008328 0.003440 0.007313 0.008631 
CGA 0.005969 -0.002496 -0.002627 0.004956 0.002543 0.002062 -0.001018 -0.003687 0.000948 -0.008826 0.008665 0.005334 -0.004875 0.002010 0.002493 -0.002115 0.003062 0.008337 0.009122 0.007519 -0.002199 0.001362 0.004979 0.009463 0.005860 -0.000787 0.007243 -0.001434 0.006911 -0.006078 0.007776 0.003138 0.007666 0.008453 0.001169 -0.006959 0.000907 0.007036 -0.003898 0.009444 -0.004525 0.003211 -0.000975 0.008146 -0.000440 0.006707 -0.009381 -0.008205 -0.009534 -0.009494 
CGG 0.008233 0.005205 -0.004117 0.002578 0.004615 -0.000152 0.009729 -0.001320 0.004779 -0.008515 -0.006539 0.006067 -0.008535 -0.007400 0.000048 -0.004556 -0.005617 -0.007935 -0.006517 0.000297 0.008654 -0.007547 -0.001095 0.000381 -0.001067 0.006787 -0.004868 0.008091 0.006473 -0.003585 0.005151 -0.006093 0.003465 -0.000014 0.000521 -0.005270 -0.005738 0.003669 0.000324 -0.000443 0.009595 -0.009882 -0.008437 0.009337 -0.000778 -0.009901 0.000129 0.005563 -0.000414 0.001812 
AGA -0.006049 0.000251 -0.005355 -0.009292 -0.003433 0.006763 0.004158 -0.005380 0.008650 0.002815 -0.001040 0.003974 0.000288 -0.008375 0.001576 0.001993 -0.003014 0.008018 -0.006246 0.009436 0.009629 -0.008648 0.002953 0.002265 -0.003444 0.001484 -0.001650 -0.009387 0.007900 0.008873 -0.002309 -0.004120 -0.007606 0.003483 -0.004648 0.005001 -0.004959 -0.003387 -0.005983 -0.009555 0.008757 -0.004578 -0.007719 -0.006269 -0.009027 0.007630 0.001288 0.009871 -0.001841 0.003423 
AGG -0.003296 0.003354 0.001690 0.004956 0.004809 0.004485 -0.005782 -0.002285 -0.005338 0.001946 -0.000246 0.003638 0.007796 -0.002440 0.003437 -0.008635 0.000287 0.007512 -0.005057 0.003075 0.001146 -0.003257 -0.009394 0.004448 0.005707 0.005257 0.003369 0.000595 -0.007660 0.005453 0.006602 -0.009493 -0.007515 0.001455 0.004752 0.003398 -0.009360 -0.007979 -0.002825 -0.008524 -0.008435 0.005835 0.006258 0.007360 -0.004177 -0.008125 0.009408 0.004538 0.002756 0.001534 
TTA 0.005365 0.000632 -0.005112 0.006665 -0.005956 -0.006436 -0.000522 0.000657 0.008532 -0.005548 0.005905 0.008084 0.002228 -0.007261 -0.009410 0.008031 -0.001472 -0.006165 -0.002797 0.002890 0.004172 -0.007756 0.006123 0.009862 0.003533 -0.007550 0.008735 -0.005545 -0.004176 -0.008124 0.005221 0.001910 0.006933 -0.006663 -0.007796 0.000347 -0.000442 -0.002115 0.000979 -0.000904 -0.001622 0.007458 -0.007862 -0.008268 0.007468 -0.006608 0.004754 -0.008700 0.000761 -0.009984 
TTG -0.004445 -0.009214 -0.006952 0.008508 0.008418 -0.005561 0.007304 -0.006906 0.001029 -0.005604 0.002780 -0.003741 0.000621 0.003198 0.005119 -0.001356 -0.003130 0.008428 0.008348 0.009700 0.008139 -0.003518 -0.002251 -0.000523 0.008130 -0.000325 0.002963 -0.003054 0.001462 -0.009113 -0.001022 -0.008708 0.000578 0.005668 0.004285 0.001304 0.001392 0.007878 -0.003719 0.008545 0.007830 0.001238 0.001930 -0.002950 0.003985 0.008347 -0.008688 -0.000130 -0.001563 0.003415 
CTT 0.001079 -0.001247 0.004643 0.007465 0.003695 -0.000029 -0.008122 0.001108 0.008668 0.002605 0.009314 0.005050 0.006427 -0.007711 0.001994 0.007625 -0.008991 0.008574 0.002558 0.005974 -0.007716 -0.007875 0.001368 0.000540 -0.004416 -0.008384 -0.000208 -0.000785 0.006913 -0.002964 -0.003490 -0.000225 -0.002821 -0.003662 0.005994 -0.003471 -0.007330 0.003206 -0.004043 0.007024 -0.006658 -0.008267 -0.003117 0.004545 0.001433 -0.009593 -0.006431 -0.000568 -0.004799 0.004107 
CTC -0.000452 0.008637 -0.007491 0.006621 0.003063 -0.007575 -0.008009 -0.009708 -0.000112 0.008470 -0.006893 -0.004041 0.009179 0.007614 -0.007220 0.003497 -0.008114 -0.008207 -0.002658 -0.002207 -0.009999 -0.004867 -0.008892 0.000030 -0.009686 -0.009704 0.006591 -0.000857 -0.009948 0.001082 -0.008102 0.009875 -0.008119 0.007659 -0.007226 0.002297 -0.003800 0.007709 0.003515 -0.004313 -0.006727 -0.006608 0.007972 -0.000654 0.003364 -0.004629 -0.007850 -0.009846 0.001544 -0.008911 
CTA 0.002577 0.008616 0.005869 0.009589 -0.004855 -0.007235 -0.002342 -0.002396 0.001051 0.004759 -0.004142 0.006187 0.004735 0.001649 -0.007121 -0.000787 0.006187 0.006419 0.002310 0.000311 -0.006901 0.007767 -0.009314 -0.007818 0.002184 -0.005747 0.008325 -0.005122 0.003746 -0.003391 0.009963 -0.008519 -0.009029 -0.001112 0.006333 0.001346 0.005608 -0.008118 0.007052 -0.003889 -0.001406 0.005259 -0.004782 -0.002351 0.008686 -0.007229 0.003118 0.009608 0.002868 -0.003323 
CTG -0.002704 0.004419 -0.006718 0.004876 0.000649 -0.002791 -0.003965 -0.002357 0.008783 -0.000743 0.007644 -0.006219 -0.003121 -0.005783 -0.006082 -0.000567 0.007580 0.009368 0.000348 -0.003551 -0.003845 0.008141 0.005493 -0.007521 0.006387 -0.009252 0.001599 -0.001277 -0.006293 -0.000302 -0.005223 -0.007791 0.001034 0.003116 -0.006261 0.007865 0.002738 -0.001493 -0.000533 0.001690 0.008205 -0.006360 0.007280 0.001688 -0.006294 -0.008217 0.009738 -0.005847 0.003269 -0.005196 
TCT 0.000268 -0.004314 0.004901 0.008067 -0.008247 -0.003504 0.003142 -0.003892 0.005993 -0.001229 -0.002679 0.001822 -0.002801 0.003367 0.005548 -0.004151 0.009733 0.000176 -0.002424 0.002733 -0.009367 0.003364 0.005846 -0.009073 0.002774 -0.004615 -0.009113 0.002222 0.001078 -0.001641 -0.006834 0.009160 0.001896 -0.003496 0.008205 -0.001962 -0.005884 -0.005273 0.009119 0.003086 0.006009 0.009772 0.009957 -0.003336 -0.007155 0.002010 0.009828 0.005624 -0.001876 -0.007128 
TCC 0.009045 0.004771 -0.008509 0.009672 -0.004790 0.008638 0.006182 0.004748 0.006283 0.007012 0.007989 -0.008931 -0.009122 0.000578 0.006886 -0.005512 0.000425 -0.009905 0.000037 0.004804 -0.004658 -0.000247 -0.009270 -0.004322 -0.002758 -0.003560 0.008390 0.006797 -0.001929 0.004590 0.001319 -0.004934 0.004524 0.004862 0.003790 -0.008725 0.007194 -0.006932 0.000808 0.007841 0.000446 -0.003849 -0.000295 0.003586 -0.005341 0.000282 0.006615 0.005798 -0.009289 0.001726 
TCA 0.008324 0.002800 0.009002 0.003338 0.007548 0.008170 -0.007366 -0.004791 0.001890 0.009053 0.004953 -0.007971 -0.009523 -0.003753 0.004706 -0.005079 -0.004314 -0.006235 0.003882 0.007284 -0.009299 -0.002893 0.000792 -0.008995 -0.002391 0.004703 0.003987 0.002041 -0.007740 -0.009629 -0.006605 -0.006840 0.002755 0.005408 -0.000114 0.007369 0.007183 -0.007016 -0.005836 0.001087 -0.003130 0.001198 -0.004662 -0.008728 -0.006912 0.001690 -0.003547 -0.006587 0.001787 0.006594 
TCG 0.002714 -0.002919 -0.008949 -0.000055 0.003722 0.002442 -0.008970 0.002993 0.003144 0.008978 -0.000484 -0.006854 -0.009898 0.008864 -0.006319 0.001534 -0.006397 -0.004256 -0.009640 0.000674 0.002951 0.001173 -0.003413 -0.009583 0.004823 -0.009420 -0.006190 0.001758 -0.001989 -0.009650 -0.001482 0.007866 0.005513 0.008402 -0.001832 0.004377 0.009176 0.001187 -0.005269 0.003801 -0.004349 0.007660 0.002440 -0.002892 -0.001469 0.000544 -0.005463 0.000449 -0.008907 0.008360 
AGT 0.004346 0.003757 0.000431 -0.006721 -0.008125 0.006737 -0.008932 0.001046 0.009906 0.007982 -0.004540 -0.005117 -0.000255 0.005364 0.003334 -0.003977 -0.002815 0.002550 0.003001 0.001686 -0.000423 0.006003 -0.001408 -0.000411 0.000107 0.008627 0.006458 -0.004094 0.004714 -0.005916 0.009421 0.003604 -0.006948 0.004531 0.000598 0.007143 0.009441 -0.009992 0.003316 0.006906 -0.008492 0.000498 -0.006875 0.006205 0.001897 -0.002969 0.009355 0.006389 0.003703 -0.003236 
AGC -0.007168 -0.006681 -0.006476 0.006600 -0.007774 0.006363 -0.000846 0.008392 0.008717 0.005340 0.008933 -0.007277 -0.004142 -0.007558 -0.003740 -0.007478 -0.001220 -0.004762 0.002389 -0.008007 0.004264 -0.002182 -0.009586 -0.002194 0.000000 0.008003 0.007190 0.002319 -0.008488 0.006745 -0.005046 0.004975 0.003696 0.009351 -0.004060 -0.009338 0.005755 -0.001247 -0.002664 -0.000789 0.003456 -0.001067 0.006683 -0.008735 -0.000762 0.009242 -0.005599 -0.004852 -0.000010 0.003198 
GGT 0.002139 -0.001198 -0.005199 0.007779 -0.002768 -0.000079 0.005617 0.003720 -0.003509 -0.003329 -0.007553 0.001782 0.004165 -0.009235 -0.007888 0.004989 0.007076 0.004974 0.003874 0.009018 0.001744 0.004324 -0.001725 0.001170 -0.000655 -0.009185 0.006960 -0.009300 -0.004298 -0.007059 0.000863 0.009220 -0.008349 -0.000094 -0.006212 0.004128 0.001293 -0.001524 0.008726 0.007921 0.000177 -0.006712 0.000410 -0.003231 0.007645 0.001234 -0.007523 0.009685 -0.005187 0.003268 
GGC -0.009674 0.007602 0.005956 -0.008460 0.001534 -0.003301 0.003842 0.006196 0.007486 0.000735 0.007314 -0.008839 0.006403 0.000299 0.007769 -0.000397 0.003662 -0.009270 0.000402 -0.003525 -0.004657 0.000947 0.001263 0.002474 -0.004961 0.000228 -0.000594 -0.009241 0.000599 0.006994 -0.007352 -0.007480 0.009606 -0.004343 0.003412 0.007058 0.000830 -0.001616 -0.006596 0.004884 -0.002260 -0.004513 0.009217 -0.006572 -0.007845 0.003230 0.004412 0.000751 0.009421 0.002816 
GGA -0.005142 0.006584 0.004653 0.002994 0.001864 -0.002113 -0.001149 0.003957 0.001783 -0.005617 0.002464 0.007791 0.000148 -0.002014 -0.007955 -0.000283 0.005724 0.004436 0.007907 0.001530 -0.001305 0.004809 0.008974 0.002068 0.009414 0.004881 -0.004256 -0.000759 -0.006584 0.005125 -0.009621 -0.001974 0.001455 -0.003995 -0.005953 -0.000859 0.001435 -0.002421 0.008912 0.005170 0.000642 -0.007327 -0.005397 -0.006980 -0.000550 0.002318 0.003771 0.002726 0.001014 0.008087 
GGG -0.007255 -0.003393 0.003131 -0.005039 0.003331 0.003177 -0.007618 -0.003761 0.002755 -0.000449 0.004373 0.008910 -0.000651 -0.005769 -0.000404 -0.006150 -0.002274 -0.002990 -0.005172 -0.009132 -0.003719 -0.001062 0.007462 -0.002978 0.003578 -0.004649 0.006644 -0.007349 -0.007994 0.003866 -0.008765 0.006818 -0.007289 -0.007946 -0.004813 0.007108 0.003057 -0.001596 -0.002164 0.000601 0.006005 0.006574 -0.008237 0.004062 -0.004476 0.001421 -0.004159 -0.007179 -0.001715 -0.005125 
CCT 0.006084 -0.005421 0.009348 0.002590 -0.004224 0.002178 0.001793 0.002918 0.005186 0.008996 0.008491 -0.008880 -0.008435 -0.000947 -0.004594 0.007177 -0.007193 0.007441 0.003506 0.005744 0.001462 -0.002501 -0.004902 -0.000291 -0.005699 -0.003466 0.003008 0.008613 -0.001666 -0.001973 0.006244 0.004921 -0.009356 -0.004221 -0.006770 -0.000353 -0.007360 0.005114 -0.001440 -0.008699 -0.002342 0.003384 -0.002367 0.008765 0.009497 -0.004575 0.003900 0.009752 0.006699 -0.004334 
CCC -0.006866 0.007867 0.002789 -0.005417 0.005515 -0.004822 0.001573 -0.009880 0.005508 -0.000677 -0.006319 0.008504 -0.006180 -0.006797 -0.006006 -0.007332 -0.001469 -0.004297 0.004480 0.000354 -0.008392 0.001164 0.004350 -0.005671 -0.005295 0.000653 -0.006998 -0.008150 0.008123 0.000369 -0.006516 -0.005517 -0.001003 -0.002996 0.002675 -0.009578 0.008354 0.005068 -0.001561 0.003686 0.002908 0.002323 -0.001885 -0.002916 -0.004004 -0.005569 0.004639 0.001560 -0.003202 -0.008981 
CCA -0.001981 -0.002993 0.005195 0.004012 -0.004232 -0.006975 0.000598 0.000659 0.005898 0.007686 -0.004354 -0.000619 -0.000327 -0.003835 -0.004245 -0.004137 -0.007932 0.001055 -0.000712 0.008482 -0.000636 0.006816 -0.002002 0.005878 0.008894 -0.001296 0.005686 0.002802 0.006864 -0.002319 -0.006593 0.009783 0.004345 0.000521 -0.007198 0.001239 -0.001338 0.007951 0.002557 -0.004921 0.005911 0.005592 -0.007692 0.006333 0.009037 0.001499 0.001257 0.004760 0.008044 -0.007965 
CCG -0.007404 0.003733 -0.008130 -0.003663 -0.003407 -0.008549 0.001901 0.006878 -0.004744 0.009346 -0.006657 -0.004861 0.008468 -0.001325 0.003153 -0.006308 0.002008 0.003505 0.005765 -0.001454 0.003265 -0.008651 0.003004 -0.008916 0.008817 0.009357 -0.001800 0.008554 -0.007110 0.001800 -0.004633 0.000574 0.006320 0.006216 0.001150 0.003842 -0.000382 0.005612 -0.008202 0.004078 -0.004268 -0.000807 0.004977 -0.004366 0.009890 -0.007948 -0.001197 -0.003712 -0.004448 0.001807 
ACT -0.007824 0.009129 -0.007302 -0.003424 -0.006205 -0.007843 -0.002762 0.002369 0.002088 -0.006325 -0.005940 0.001740 -0.009132 -0.009891 0.008940 -0.009943 0.009354 0.009154 -0.006467 0.005683 0.007297 0.004071 0.004140 0.005254 0.006518 0.001590 -0.007913 0.006821 0.002741 0.005527 -0.006749 0.004639 0.000314 0.008102 0.001605 0.005167 0.003768 -0.001917 -0.003640 0.008155 -0.002088 0.008928 0.001532 -0.006950 -0.005568 0.005415 0.007535 0.001575 0.003290 0.006045 
ACC 0.009978 0.001773 0.000404 -0.005371 0.009687 0.002944 -0.003914 0.002854 -0.000589 -0.000839 0.002523 -0.006623 -0.008312 0.002996 -0.005562 0.008015 -0.007815 0.002481 -0.003496 -0.007223 -0.003447 -0.005586 0.008664 -0.003478 -0.004835 -0.008174 -0.007637 0.009912 -0.000085 0.006661 0.003698 -0.006225 0.000099 0.000302 -0.006535 -0.001506 -0.004473 -0.001607 -0.004048 0.002739 0.006954 0.009905 0.001902 -0.008109 0.008872 -0.007972 -0.008819 0.000707 0.002093 0.001594 
ACA -0.005635 0.003146 -0.008435 -0.008517 -0.009928 -0.002728 0.007774 0.000370 -0.006661 0.005604 -0.006475 0.001692 -0.005103 -0.007476 0.000138 -0.004225 0.007382 0.002756 -0.003320 0.004106 0.009719 -0.009871 -0.008211 -0.009045 -0.000231 -0.002365 0.006959 0.008194 0.005166 -0.001882 -0.008972 -0.005879 0.001314 -0.006952 -0.006875 -0.008741 -0.009104 -0.001326 0.003182 -0.008863 -0.004705 -0.000952 -0.006713 -0.003678 0.000452 -0.005492 -0.005992 -0.005711 0.002399 0.002243 
ACG 0.000259 0.007174 -0.008602 0.002661 0.006548 -0.004235 -0.000468 -0.001986 0.005910 0.005329 -0.007467 -0.000473 0.004227 -0.000761 0.005569 0.006172 -0.006814 -0.001343 0.002758 -0.005349 -0.005070 -0.009122 -0.001505 0.006437 0.005454 0.003567 0.009699 0.007721 0.002544 -0.003463 0.007894 0.009318 0.006396 -0.005944 -0.006777 -0.005699 0.002564 0.008146 0.004282 -0.008510 -0.005954 -0.009033 0.003818 0.000169 -0.004170 -0.009699 0.001465 0.007994 0.004295 0.002640 
GTT 0.006782 -0.001209 -0.005907 -0.005527 -0.003370 -0.003372 -0.006604 -0.002757 0.007302 0.008096 -0.005449 0.006311 0.002225 -0.008316 0.008727 0.003010 0.006052 -0.009829 -0.006360 0.001942 -0.006101 0.004566 0.000259 -0.002877 -0.008960 0.008527 -0.004071 -0.004815 -0.004149 0.004876 0.004523 -0.005236 0.004856 0.002687 0.004388 -0.006618 0.007048 0.000001 0.008866 -0.008871 0.005434 0.008869 0.001152 -0.007038 0.003901 0.001034 -0.003597 0.004513 -0.008431 0.001833 
GTC 0.002253 0.008479 -0.000772 0.003023 -0.006236 -0.008177 0.002195 0.004377 0.007460 -0.004848 0.008938 0.008521 -0.008143 0.005605 -0.007158 0.003751 -0.003736 0.009921 -0.005129 -0.009842 -0.007445 -0.009070 -0.000043 -0.000396 -0.006421 0.006890 0.008162 -0.007116 -0.000766 0.000535 0.006997 -0.000998 -0.007397 0.000260 0.007632 0.004656 0.001166 0.009519 -0.009270 0.007437 0.004651 -0.000343 0.005513 0.005194 0.008478 0.005298 -0.002141 0.005427 0.000681 -0.005713 
GTA -0.004079 -0.002031 0.006394 0.000214 -0.001270 -0.001453 0.000515 0.006038 0.003288 0.005232 -0.009723 0.000530 0.009231 0.005719 -0.004108 -0.006492 -0.002086 -0.002725 -0.009508 0.006382 -0.007978 0.009384 -0.001222 -0.007142 -0.009023 0.002444 -0.004949 -0.008208 -0.003901 -0.009691 0.001335 0.006296 -0.009620 -0.007468 -0.004020 0.008992 0.007783 0.006164 -0.000759 -0.000207 -0.009247 -0.006085 -0.001816 0.007465 -0.001665 -0.001353 0.003137 0.001434 0.001608 0.001271 
GTG 0.002751 0.006295 0.001466 0.009429 0.009173 0.008690 0.002379 0.003556 -0.001750 0.009270 -0.006784 0.001645 0.007349 0.003694 0.001220 -0.009105 -0.000886 0.008508 -0.007238 -0.000539 0.001700 -0.004073 -0.004762 -0.003414 0.006900 -0.002260 -0.006828 0.003751 -0.007238 0.008798 0.002299 0.007902 0.002522 0.001140 -0.004443 -0.003577 -0.002045 -0.002963 -0.005032 -0.009427 -0.009091 0.002080 -0.009822 -0.008892 -0.006539 -0.002259 -0.002978 0.006308 -0.007964 0.002339 
GCT 0.000486 0.003684 0.005112 -0.004399 0.008379 0.001671 0.001924 -0.006942 0.002240 -0.003363 -0.007600 0.004588 -0.006678 0.008205 0.002890 0.009194 0.000647 -0.008014 -0.001647 0.000455 -0.008791 -0.006616 0.008862 0.009985 0.002512 0.003677 -0.006706 -0.009025 -0.004293 0.006950 0.002149 0.002909 0.006069 -0.009754 -0.001847 0.009386 0.005428 0.003188 0.001054 -0.003006 0.004246 -0.000225 0.007076 0.004531 -0.002300 0.005397 0.007989 0.000990 -0.009733 0.006100 
GCC -0.000128 0.008219 -0.008961 0.000922 0.005297 -0.004691 -0.005327 -0.009342 0.001938 -0.001952 -0.000763 -0.005495 -0.000481 0.007344 0.007468 0.005501 0.004900 -0.004708 -0.005755 0.005818 -0.008348 -0.009264 -0.008268 0.005123 -0.002467 -0.006071 0.003400 -0.007595 -0.006001 0.009182 0.009025 -0.007824 -0.007227 0.006014 0.001332 0.003992 -0.007176 -0.007223 0.003258 0.000239 0.009510 -0.000663 0.000465 -0.008804 -0.000692 -0.003722 -0.005575 0.001305 0.009768 -0.005306 
GCA 0.009456 -0.000350 -0.006844 0.004385 0.003982 0.003175 0.006596 -0.008729 0.002912 0.001216 0.002971 -0.004717 0.005146 -0.008747 -0.005343 -0.007741 0.009401 0.006020 -0.002294 -0.007464 -0.007154 0.002670 -0.004156 -0.008966 0.002607 -0.007002 0.006541 -0.005654 -0.004898 0.004250 -0.001098 0.008410 0.005007 -0.007405 -0.009690 0.009822 -0.001405 -0.000942 0.002142 -0.007950 -0.007526 -0.002085 0.006436 0.008467 -0.000716 -0.000383 -0.003569 0.000846 0.004792 -0.006126 
GCG -0.004150 -0.005684 0.010000 -0.007734 -0.007577 0.005236 -0.008598 0.003714 0.000771 0.001089 0.008304 0.002672 0.005550 -0.009056 0.003480 0.007225 0.009175 -0.004179 0.005557 -0.006655 0.005381 -0.004372 0.004985 0.009847 -0.003956 0.006126 -0.007971 -0.004571 0.001531 0.008826 -0.002631 -0.005181 0.003002 -0.006417 0.000357 -0.000267 -0.005015 -0.008927 -0.007967 0.006090 -0.007375 -0.002767 0.009213 0.006264 -0.004832 0.008789 0.002743 0.002290 0.001028 0.006116 
ATT 0.005427 0.009005 -0.005913 -0.000570 0.003716 -0.000251 -0.008023 -0.006248 -0.007033 0.002443 -0.007983 0.000764 -0.009860 0.000541 0.002587 -0.005855 -0.008229 -0.006279 -0.007407 0.005518 0.009791 -0.002782 -0.000519 -0.005400 -0.004337 0.003603 -0.003636 -0.000649 0.005460 -0.009931 -0.001997 -0.006533 0.003351 0.001682 -0.004383 -0.004704 0.004216 -0.009345 0.009539 -0.001217 0.007340 -0.009425 -0.007605 -0.001754 -0.006707 -0.005375 -0.004263 -0.008825 -0.001796 0.008109 
ATC 0.000535 0.008403 0.007799 0.001851 -0.002323 -0.006855 0.008475 0.002379 0.001580 -0.006179 0.002285 -0.009667 0.001572 -0.006457 0.006651 0.009884 -0.009590 0.004594 -0.009737 0.008510 -0.004870 0.004796 0.007212 0.001574 0.008191 -0.005386 -0.003667 0.003561 -0.007986 -0.008713 0.005412 -0.001816 -0.007814 -0.001068 0.006303 -0.003649 0.001265 -0.007736 0.008099 0.009074 -0.004184 -0.000351 -0.006681 0.003013 -0.009283 0.000023 -0.000001 -0.009722 0.009993 0.007981 
ATA 0.005398 -0.007047 -0.007491 0.008886 0.005485 0.007661 -0.006607 0.004006 -0.009341 -0.000441 -0.008589 0.008630 0.004729 0.008557 0.006260 0.000722 -0.008939 -0.002386 -0.007101 0.001138 0.005382 0.000761 0.006093 -0.000123 -0.003642 0.006423 0.008620 0.004573 0.001584 -0.000092 -0.000732 -0.005306 0.004883 -0.008759 0.003131 -0.007970 0.001185 0.008782 0.005548 -0.008223 -0.004102 0.000625 0.007186 -0.004391 0.008532 -0.005840 0.004894 0.002444 -0.007428 0.007205 
TAA -0.001995 0.007621 0.009956 -0.000982 0.008861 0.002513 -0.000365 0.001357 0.004018 -0.002798 -0.002125 -0.003049 0.004875 -0.007810 0.005466 0.003358 0.007958 -0.009861 0.004903 -0.004171 -0.007111 -0.005015 0.000167 -0.003219 0.007846 0.007856 -0.005311 0.004229 -0.000794 -0.003322 -0.002034 -0.005051 0.004322 -0.009430 -0.008050 0.006642 -0.000176 -0.007464 0.006591 0.004895 -0.004066 0.005835 -0.002387 0.005895 -0.008021 -0.002604 0.008855 -0.009217 -0.008928 -0.005214 
TGA 0.007831 0.002822 -0.008919 -0.003273 0.008325 0.000354 -0.005490 -0.009977 0.000363 0.003078 -0.000071 -0.005886 0.008451 -0.002240 -0.009431 -0.000683 0.007990 0.003962 0.000611 -0.005041 0.001285 0.002937 0.002705 0.004053 0.004578 -0.004638 0.007932 -0.007716 -0.004279 0.000985 -0.009811 0.000393 0.003219 -0.007951 -0.009958 -0.005784 -0.005997 0.000771 -0.002434 0.000764 -0.005979 0.003289 -0.009401 -0.005299 -0.005577 0.001807 -0.000263 -0.005569 0.003262 -0.007216 
TAG -0.004334 -0.001361 0.007411 0.006954 0.007238 -0.005843 0.006535 -0.009886 0.006652 0.008330 -0.001268 0.000453 -0.008072 0.001924 0.001808 0.006571 -0.009206 0.007790 0.000475 -0.006129 0.006015 -0.005874 0.001939 0.000804 0.009132 -0.008193 0.009508 -0.003205 -0.007338 0.008267 0.002434 -0.006145 -0.003221 -0.002255 0.001336 0.000068 0.005301 -0.006490 0.004666 0.004863 -0.008093 0.000397 0.007143 0.002274 -0.008624 0.006170 0.004722 -0.001931 0.000697 -0.009923 
AAT -0.002951 0.002392 -0.008553 -0.001310 -0.005929 0.001151 -0.004183 -0.003895 0.000301 -0.005786 -0.004136 -0.001980 0.005753 0.002768 0.002352 0.007846 -0.001617 -0.009766 -0.005060 -0.009368 -0.001769 0.004738 0.000898 0.002460 -0.004911 -0.005704 -0.006922 0.001026 0.007277 -0.008732 0.009285 0.000014 -0.001154 0.005432 0.005741 0.007917 -0.002982 -0.004396 -0.002601 0.002736 0.006380 -0.008015 0.007319 -0.000519 -0.003362 0.007678 0.005470 0.006580 -0.008216 0.006512 
AAC 0.006154 -0.004379 -0.009917 -0.009935 0.005873 -0.001476 -0.002856 -0.004769 -0.007747 0.002131 -0.005119 -0.003857 0.008929 0.004007 0.005275 0.004238 -0.006324 0.007727 -0.005507 -0.007757 0.001986 -0.009956 -0.006503 0.005059 -0.007813 -0.009935 0.001919 0.004325 -0.002019 0.001356 -0.006416 0.003553 -0.004026 0.007457 -0.000071 -0.008414 -0.008814 0.003755 0.001730 -0.008148 0.000891 -0.005513 -0.004063 -0.004027 -0.002489 -0.006503 0.006190 -0.002156 -0.004951 0.009379 
GAT 0.008381 0.005720 0.008461 -0.003101 0.000961 0.006599 0.007566 0.003107 -0.000204 0.007309 0.008248 0.003598 -0.007970 0.000788 0.005489 -0.001895 -0.005603 -0.006466 0.000835 0.004546 -0.001034 0.005298 0.008526 0.001221 0.003955 -0.007612 -0.006682 0.008552 0.000673 0.008617 -0.009048 -0.008279 -0.007708 -0.003853 0.009504 -0.005556 0.004477 0.004697 0.009397 -0.001335 -0.002442 -0.001943 -0.000417 0.009381 -0.000093 -0.003286 0.009259 0.008518 0.001790 0.008437 
GAC -0.008605 -0.003851 0.001878 0.001970 -0.004054 -0.002112 -0.003115 0.007151 0.000207 -0.007804 0.001323 0.002903 -0.004502 -0.001868 -0.004314 -0.006130 0.005568 0.002784 0.007941 0.002318 0.007808 0.000741 0.009490 -0.007951 0.005195 -0.007077 0.009536 0.006932 0.001991 -0.004648 0.008706 -0.006382 0.001898 -0.000037 -0.003661 0.005059 -0.003541 -0.004388 -0.009285 -0.000358 0.007888 0.002483 -0.009557 -0.004314 0.008535 -0.005291 0.004825 0.002969 0.005487 -0.006724 
TGT 0.008987 -0.001059 -0.006393 0.006665 0.008099 -0.005113 0.006298 -0.006377 -0.009030 -0.002529 -0.006186 -0.001133 -0.005214 0.006449 -0.008465 0.006760 0.002456 -0.007035 0.006882 -0.005764 -0.003750 -0.002138 -0.006089 -0.007136 0.002187 0.008068 -0.000891 -0.003356 -0.000506 -0.001898 -0.001462 -0.001472 0.009670 0.006808 0.005868 -0.007753 0.006941 -0.007491 0.009065 0.001062 -0.005653 0.003420 -0.007380 -0.002762 0.006749 -0.007261 -0.009409 0.002992 0.005038 0.002577 
TGC 0.000520 -0.005478 -0.006737 -0.005322 0.008193 -0.003480 0.003183 -0.003173 0.006287 -0.006020 -0.009306 -0.004620 0.006195 0.001554 0.007600 -0.006906 -0.008527 0.008508 -0.005291 0.003563 -0.009290 -0.000378 -0.003199 -0.007608 -0.006700 -0.006797 -0.009722 0.009253 0.006374 -0.008441 0.001815 -0.009059 -0.006057 0.006053 -0.006708 0.008572 -0.004231 -0.006828 0.008123 -0.003414 0.007735 0.001345 0.009993 -0.003850 -0.002448 0.007948 -0.008264 0.008203 0.006604 0.001705 
CAA -0.008279 -0.006249 -0.002166 0.003510 0.007480 0.004587 -0.009273 0.003347 -0.002307 0.002930 -0.001363 0.004064 -0.008099 0.008431 -0.006546 0.003473 -0.000770 0.003514 -0.001657 0.008793 -0.006849 -0.008312 0.000753 0.004523 -0.009765 0.003150 -0.001058 0.007691 -0.007409 -0.007655 -0.008646 -0.003862 0.001504 0.005620 0.009751 0.002117 0.007289 0.003996 -0.005880 -0.005474 -0.004372 0.007969 0.009661 -0.000886 -0.009310 0.007939 -0.000764 -0.006280 0.004908 0.006092 
CAG -0.006156 -0.004475 0.008261 -0.000341 -0.000037 0.002773 -0.004851 0.007580 0.002753 0.001854 0.006278 -0.003342 0.004935 -0.005565 -0.006420 -0.003523 -0.001820 0.007401 0.004789 0.005765 0.004945 -0.007329 -0.007115 0.004933 0.001601 0.002949 0.004852 0.005885 0.002910 -0.006773 -0.001083 0.006554 0.001125 -0.007186 0.009915 0.001388 -0.001624 0.000088 0.007978 -0.003768 0.004989 0.006092 -0.002778 0.000258 -0.003801 0.005057 0.004362 -0.004282 -0.003948 0.000663 
GAA 0.003265 0.001129 0.006394 -0.000361 0.001524 0.009697 0.005565 0.003066 -0.000958 0.003531 0.005068 -0.005710 -0.004456 0.005785 -0.002804 -0.003056 -0.000801 -0.004482 -0.000463 0.004431 -0.003009 0.008560 -0.005738 -0.000587 0.006878 -0.001446 0.006923 -0.008096 0.008380 0.005425 0.003050 0.007759 -0.003346 0.008107 -0.001521 0.005680 0.008826 0.001577 -0.004041 0.007187 0.003740 -0.002080 -0.008244 -0.009788 0.003076 -0.000630 -0.002423 -0.008976 -0.005112 0.006580 
GAG 0.007805 -0.001670 -0.002818 -0.003901 -0.006745 -0.003235 0.002519 -0.003735 -0.007120 0.001927 -0.002872 0.005184 -0.006534 -0.002516 -0.001139 0.000650 0.002037 0.000954 -0.008150 0.004537 0.004614 -0.000813 0.005851 -0.005768 -0.005464 0.009684 -0.008049 0.006304 0.000925 0.000372 0.007598 -0.008940 0.002148 -0.008601 -0.007019 -0.008236 0.009929 -0.000890 0.002680 -0.004172 0.003286 0.001353 -0.002706 -0.002121 -0.009813 -0.006635 -0.006864 -0.006528 0.001607 -0.008242 
CAT -0.003022 -0.006608 0.001050 0.004242 -0.004522 0.007951 0.006722 0.007700 -0.001738 -0.008823 0.009959 -0.004838 0.008754 -0.002362 -0.002426 -0.000855 0.006711 -0.006896 -0.000731 -0.003880 0.006552 0.003835 0.007235 0.009262 0.006306 -0.006398 0.007854 0.007735 0.001033 0.003596 0.002401 -0.008963 -0.009878 -0.000182 0.002589 0.001810 -0.003270 -0.004844 -0.003583 0.009918 -0.002103 -0.001584 0.005337 0.007343 0.002195 0.009488 -0.000999 0.007278 0.002850 0.001683 
CAC -0.008717 0.008136 0.001589 -0.006349 0.007292 -0.007279 -0.003837 -0.006275 -0.005059 0.001217 -0.009287 0.003671 0.005217 -0.008050 0.002950 0.002807 0.001267 0.006572 0.008825 0.002913 0.006355 0.005376 0.002261 -0.004709 0.005772 0.007258 0.002608 0.004706 0.005243 -0.006894 0.006458 0.007542 -0.009001 -0.001372 0.001281 -0.003081 -0.002512 -0.000473 0.008516 -0.007735 -0.000349 -0.006488 -0.005936 0.006545 0.002113 -0.009132 0.008834 0.005785 -0.007067 0.008614 
AAA -0.009600 -0.007937 -0.000948 0.002436 -0.000152 -0.001784 -0.005580 -0.006857 -0.001865 0.001272 0.000471 -0.009676 -0.008066 0.006159 -0.007986 0.004342 -0.005955 -0.005540 0.007615 -0.006917 -0.002121 0.000537 -0.001144 -0.004684 -0.006647 0.009041 0.000151 0.004858 0.003815 -0.007828 -0.007035 0.001634 -0.001532 0.007615 0.004130 0.005606 -0.000454 -0.005279 0.004478 0.009906 0.009018 -0.009454 -0.007729 0.003513 -0.009923 -0.004584 0.001939 -0.000240 0.007160 0.003565 
AAG -0.000846 -0.007478 0.003748 -0.009183 -0.000727 -0.009892 -0.006040 0.000069 -0.009651 -0.005147 -0.005981 0.006902 0.009622 -0.002254 -0.003486 -0.000799 0.006065 -0.007742 0.002802 -0.008197 0.003850 -0.002094 0.001375 0.004515 0.002824 0.005192 0.009941 0.004556 -0.006226 -0.000877 0.005653 0.005676 0.000437 -0.002080 -0.005805 -0.003022 -0.009502 0.003238 0.002777 0.008073 0.005809 -0.002656 -0.003131 -0.009607 0.006626 0.004903 -0.003464 -0.001147 -0.003859 -0.002272 
TTT -0.008738 -0.000091 -0.008007 -0.001720 0.006979 0.005666 0.002249 0.006579 0.004352 -0.009622 0.003236 0.007048 0.006905 0.004946 0.007389 0.000823 0.003451 -0.000946 -0.004672 0.005690 -0.007093 0.009790 0.000924 0.001813 -0.009063 0.009085 0.004971 0.004619 -0.004841 0.009767 0.000155 -0.008683 0.001098 0.008931 0.004745 0.005414 0.003015 0.007921 -0.005531 0.005005 -0.003395 -0.006583 0.005966 0.008436 0.000985 -0.007104 -0.009985 -0.003508 0.005026 0.000208 
TTC -0.005234 0.005210 0.000616 0.003920 -0.000080 0.005488 -0.007805 0.003513 0.001474 -0.003123 0.003996 0.002015 -0.003169 0.008684 0.002152 -0.009883 -0.008574 0.007216 -0.005705 0.007189 -0.002403 0.000665 0.000644 -0.003729 0.003122 -0.003323 -0.002890 0.003052 -0.001020 0.000290 -0.006008 0.005755 0.009781 -0.009337 0.007256 0.006865 0.000442 0.003395 -0.002340 -0.008957 -0.005687 -0.000406 -0.004442 0.009835 0.000529 -0.000076 0.005947 0.004049 -0.000441 -0.004192 
TAT 0.009413 0.009695 0.005146 0.003479 -0.004179 -0.004126 0.003492 0.008083 0.006259 -0.009819 -0.003448 -0.003570 0.003849 0.006985 -0.007917 -0.004626 0.009251 0.000916 -0.004440 -0.003546 0.008779 -0.001216 0.009871 0.000952 -0.001722 -0.001241 0.009640 0.002276 0.006318 0.005661 0.003547 0.004994 -0.003168 0.001976 -0.002583 0.001278 0.003062 0.001384 -0.002941 0.009563 0.009855 -0.001689 -0.009312 0.000562 -0.007544 0.005204 0.008001 -0.003153 -0.009564 -0.009632 
TAC 0.008044 0.008700 -0.003914 0.002753 -0.006392 -0.007707 0.005645 -0.006178 0.001654 0.008474 0.007787 0.003359 -0.000870 0.006629 0.006116 -0.006167 -0.000497 -0.000775 -0.001032 -0.002368 -0.003194 0.004356 -0.008817 0.008936 -0.008023 0.007612 -0.009100 0.009803 0.001010 0.004643 -0.005321 -0.003918 -0.004046 0.001617 -0.000867 0.008796 0.000063 -0.002078 -0.006665 0.006134 -0.007961 -0.007714 -0.002882 -0.008602 -0.005114 0.003930 -0.003582 -0.008995 0.006595 -0.007959 
